Language model created by QuickLM on Wed May 25 23:57:09 EDT 2022
Copyright (c) 1996-2010 Carnegie Mellon University and Alexander I. Rudnicky

The model is in standard ARPA format, designed by Doug Paul while he was at MITRE.

The code that was used to produce this language model is available in Open Source.
Please visit http://www.speech.cs.cmu.edu/tools/ for more information

The (fixed) discount mass is 0.5. The backoffs are computed using the ratio method.
This model based on a corpus of 4 sentences and 8 words

\data\
ngram 1=8
ngram 2=10
ngram 3=6

\1-grams:
-0.8451 </s> -0.3010
-0.8451 <s> -0.2341
-1.4472 ANNYONG -0.2341
-1.4472 DO -0.2852
-1.4472 E-MAIL -0.2341
-1.4472 HELLO -0.2341
-1.4472 HI -0.2852
-1.4472 PI -0.2341

\2-grams:
-0.9031 <s> ANNYONG 0.0000
-0.9031 <s> DO 0.0000
-0.9031 <s> HELLO 0.0000
-0.9031 <s> HI 0.0000
-0.3010 ANNYONG </s> -0.3010
-0.3010 DO E-MAIL 0.0000
-0.3010 E-MAIL </s> -0.3010
-0.3010 HELLO </s> -0.3010
-0.3010 HI PI 0.0000
-0.3010 PI </s> -0.3010

\3-grams:
-0.3010 <s> ANNYONG </s>
-0.3010 <s> DO E-MAIL
-0.3010 <s> HELLO </s>
-0.3010 <s> HI PI
-0.3010 DO E-MAIL </s>
-0.3010 HI PI </s>

\end\
